SVM-light Version V6.02
0 # kernel type
3 # kernel parameter -d 
1 # kernel parameter -g 
1 # kernel parameter -s 
1 # kernel parameter -r 
empty# kernel parameter -u 
10 # highest feature index 
475 # number of training documents 
469 # number of support vectors plus 1 
0 # threshold b, each following line is a SV (starting with alpha*y)
-2.749175621497787553362259979628e-06 1:3 2:0 3:1 4:1 5:0 6:6 7:0 8:27 9:50 10:0 #
-2.6509907787610450343904981013177e-06 1:4 2:0 3:0 4:0 5:1 6:1 7:0 8:0 9:0 10:8 #
-4.0255785886217601796132660452177e-06 1:1 2:0 3:18 4:12 5:0 6:3 7:0 8:746 9:1069 10:0 #
-2.8473604651227084920341470902772e-06 1:8 2:0 3:3 4:2 5:0 6:42 7:0 8:0 9:3 10:0 #
-2.749175621497787553362259979628e-06 1:3 2:0 3:0 4:4 5:0 6:20 7:0 8:0 9:10 10:0 #
-3.5346543704971550627373568648215e-06 1:4 2:3 3:2 4:1 5:1 6:82 7:93 8:11 9:8 10:24 #
-5.7929057738703370757072340369032e-06 1:9 2:0 3:37 4:31 5:0 6:31 7:0 8:1817 9:5091 10:0 #
-2.9455453087476294307060342009263e-06 1:5 2:0 3:1 4:1 5:0 6:48 7:0 8:21 9:28 10:0 #
-3.8292089013719183022694918239193e-06 1:3 2:1 3:6 4:7 5:0 6:1 7:18 8:566 9:808 10:0 #
-2.6509907778728666146903728689788e-06 1:0 2:0 3:0 4:0 5:0 6:0 7:0 8:0 9:0 10:0 #
-3.5346543704971550627373568648215e-06 1:4 2:1 3:1 4:2 5:1 6:23 7:32 8:19 9:201 10:24 #
1.3647693263864077390995141469965e-05 1:9 2:0 3:0 4:8 5:0 6:617 7:0 8:0 9:317 10:0 #
-2.6509907778910812111881293434701e-06 1:3 2:0 3:0 4:0 5:0 6:5 7:0 8:0 9:0 10:0 #
-2.6509907778728666146903728689788e-06 1:1 2:0 3:0 4:0 5:0 6:13 7:0 8:0 9:0 10:0 #
-2.8473604651227084920341470902772e-06 1:3 2:0 3:0 4:0 5:0 6:41 7:0 8:0 9:0 10:0 #
-3.8292089013719183022694918239193e-06 1:8 2:0 3:0 4:1 5:0 6:188 7:0 8:0 9:110 10:0 #
-4.4183179631214439343008144878144e-06 1:12 2:0 3:4 4:8 5:2 6:220 7:0 8:186 9:439 10:34 #
-2.6509907778728666146903728689788e-06 1:0 2:0 3:0 4:0 5:0 6:0 7:0 8:0 9:0 10:0 #
3.9077567762682692239280951573832e-05 1:3 2:6 3:1 4:7 5:1 6:16 7:431 8:50 9:1131 10:13 #
-2.9455453087476294307060342009263e-06 1:5 2:0 3:3 4:1 5:2 6:33 7:0 8:23 9:66 10:4 #
-2.749175621497787553362259979628e-06 1:1 2:1 3:3 4:3 5:0 6:0 7:0 8:9 9:86 10:0 #
-3.5346543704971550627373568648215e-06 1:5 2:1 3:0 4:7 5:0 6:115 7:0 8:0 9:49 10:0 #
-4.5165028067463648729727015984636e-06 1:5 2:0 3:3 4:4 5:0 6:431 7:0 8:127 9:224 10:0 #
2.9455453087476313365301655231021e-07 1:18 2:3 3:4 4:3 5:4 6:1922 7:330 8:928 9:400 10:902 #
-2.6509907778741405522430433366887e-06 1:1 2:1 3:0 4:1 5:0 6:6 7:22 8:0 9:7 10:0 #
-2.6509907778728666146903728689788e-06 1:2 2:0 3:2 4:2 5:0 6:0 7:0 8:16 9:8 10:0 #
3.9077567762718802947888296905887e-05 1:10 2:0 3:0 4:4 5:0 6:52 7:0 8:0 9:120 10:0 #
3.9077567762718802947888296905887e-05 1:11 2:4 3:0 4:12 5:3 6:120 7:176 8:0 9:183 10:59 #
1.4924096230988047052630832145503e-05 1:3 2:3 3:8 4:9 5:1 6:73 7:141 8:949 9:1907 10:13 #
-2.9455453087476294307060342009263e-06 1:3 2:0 3:1 4:6 5:0 6:0 7:0 8:57 9:144 10:0 #
-3.3292047615182084493144504949713e-06 1:7 2:0 3:0 4:1 5:0 6:57 7:0 8:0 9:103 10:0 #
-3.4364695268722341240654697541723e-06 1:5 2:0 3:0 4:7 5:0 6:24 7:0 8:0 9:220 10:0 #
-2.6509907778728666146903728689788e-06 1:0 2:0 3:0 4:0 5:0 6:0 7:0 8:0 9:0 10:0 #
-2.9455453087476294307060342009263e-06 1:1 2:0 3:4 4:10 5:0 6:0 7:0 8:64 9:138 10:0 #
-2.6509907778728666146903728689788e-06 1:0 2:0 3:0 4:0 5:0 6:0 7:0 8:0 9:0 10:0 #
-2.9455453087476294307060342009263e-06 1:2 2:0 3:1 4:4 5:0 6:19 7:0 8:1041 9:272 10:0 #
-2.6509907778728666146903728689788e-06 1:2 2:4 3:1 4:1 5:0 6:11 7:31 8:27 9:7 10:0 #
-2.6509907778728666146903728689788e-06 1:1 2:0 3:3 4:1 5:0 6:3 7:0 8:7 9:28 10:0 #
-3.8292089013719183022694918239193e-06 1:2 2:0 3:3 4:3 5:0 6:180 7:0 8:22 9:39 10:0 #
-5.203796712120811443675911373008e-06 1:35 2:0 3:50 4:17 5:0 6:421 7:0 8:4939 9:2201 10:0 #
-3.0437301523725503693779213115755e-06 1:18 2:0 3:0 4:2 5:0 6:19 7:0 8:0 9:46 10:0 #
7.2656784282441511557855406966411e-06 1:12 2:2 3:7 4:15 5:3 6:111 7:75 8:1091 9:2175 10:55 #
-3.9273937449968392409413789345685e-06 1:12 2:0 3:4 4:0 5:0 6:293 7:0 8:68 9:0 10:0 #
-5.203796712120811443675911373008e-06 1:7 2:1 3:0 4:5 5:3 6:219 7:0 8:0 9:1056 10:253 #
-4.6146876503712858116445887091128e-06 1:7 2:3 3:16 4:26 5:0 6:39 7:388 8:969 9:1654 10:0 #
-3.8292089013719183022694918239193e-06 1:4 2:2 3:1 4:4 5:2 6:35 7:25 8:3 9:124 10:99 #
-3.6328392141220760014092439754707e-06 1:13 2:0 3:2 4:1 5:1 6:150 7:0 8:22 9:0 10:2 #
-3.7310240577469969400811310861199e-06 1:6 2:0 3:1 4:6 5:1 6:50 7:0 8:6 9:175 10:37 #
-2.6509907778728666146903728689788e-06 1:0 2:0 3:0 4:1 5:0 6:0 7:0 8:0 9:17 10:0 #
-3.8292089013719183022694918239193e-06 1:7 2:1 3:5 4:3 5:0 6:182 7:31 8:73 9:101 10:0 #
-3.8292089013719183022694918239193e-06 1:3 2:0 3:0 4:2 5:2 6:58 7:0 8:0 9:415 10:27 #
8.8366359262428963389311015186323e-06 1:13 2:0 3:29 4:20 5:0 6:264 7:0 8:1069 9:1857 10:0 #
3.9077567762718802947888296905887e-05 1:2 2:1 3:0 4:1 5:0 6:4 7:22 8:0 9:57 10:0 #
-3.0437301523725503693779213115755e-06 1:1 2:0 3:14 4:5 5:0 6:3 7:0 8:186 9:263 10:0 #
-3.9273937449968392409413789345685e-06 1:8 2:0 3:3 4:5 5:0 6:204 7:0 8:42 9:221 10:0 #
-3.1419149959974713080498084222247e-06 1:6 2:0 3:1 4:4 5:0 6:53 7:0 8:1 9:66 10:0 #
-2.749175621497787553362259979628e-06 1:4 2:4 3:0 4:0 5:1 6:9 7:84 8:0 9:0 10:7 #
3.8979382919093765965702635956092e-05 1:13 2:1 3:4 4:28 5:1 6:300 7:0 8:127 9:475 10:3 #
-3.1419149959974713080498084222247e-06 1:1 2:0 3:8 4:10 5:0 6:12 7:0 8:324 9:212 10:0 #
3.9077567762718802947888296905887e-05 1:3 2:0 3:1 4:11 5:1 6:37 7:0 8:11 9:395 10:16 #
-5.203796712120811443675911373008e-06 1:15 2:3 3:8 4:7 5:2 6:411 7:109 8:696 9:1445 10:27 #
-3.1419149959974713080498084222247e-06 1:8 2:0 3:0 4:3 5:0 6:71 7:0 8:0 9:17 10:0 #
-2.8473604651227084920341470902772e-06 1:9 2:2 3:8 4:2 5:1 6:14 7:51 8:747 9:101 10:13 #
3.9077567762718802947888296905887e-05 1:31 2:3 3:2 4:11 5:1 6:215 7:28 8:64 9:226 10:0 #
-3.7310240577469969400811310861199e-06 1:5 2:0 3:2 4:2 5:0 6:70 7:0 8:28 9:323 10:0 #
-3.5346543704971550627373568648215e-06 1:5 2:0 3:1 4:3 5:1 6:137 7:0 8:10 9:18 10:2 #
-4.0255785886217601796132660452177e-06 1:3 2:0 3:13 4:15 5:0 6:59 7:0 8:364 9:842 10:0 #
-3.1419149959974713080498084222247e-06 1:8 2:0 3:0 4:0 5:0 6:83 7:0 8:0 9:0 10:0 #
-3.8292089013719183022694918239193e-06 1:1 2:0 3:2 4:5 5:0 6:1 7:0 8:280 9:799 10:0 #
2.7688125902227879194259299588943e-05 1:12 2:2 3:1 4:6 5:0 6:452 7:0 8:21 9:335 10:0 #
-2.8473604651227084920341470902772e-06 1:3 2:0 3:4 4:6 5:0 6:2 7:0 8:17 9:71 10:0 #
-2.6509907778728666146903728689788e-06 1:0 2:0 3:0 4:0 5:0 6:0 7:0 8:0 9:0 10:0 #
-3.5346543704971550627373568648215e-06 1:4 2:0 3:0 4:1 5:2 6:36 7:0 8:0 9:215 10:23 #
-3.4364695268722341240654697541723e-06 1:4 2:0 3:2 4:2 5:0 6:65 7:0 8:221 9:190 10:0 #
-4.6146876503714043962572043111603e-06 1:28 2:2 3:4 4:2 5:3 6:436 7:146 8:99 9:83 10:30 #
-3.1419149959974713080498084222247e-06 1:6 2:1 3:5 4:11 5:0 6:13 7:26 8:30 9:148 10:0 #
-3.5346543704971550627373568648215e-06 1:4 2:0 3:5 4:3 5:0 6:103 7:0 8:264 9:167 10:0 #
-2.6509907778728666146903728689788e-06 1:1 2:0 3:0 4:0 5:0 6:0 7:0 8:0 9:0 10:0 #
1.0800332798741315959401790985916e-06 1:11 2:4 3:34 4:33 5:7 6:95 7:56 8:1539 9:6017 10:57 #
-2.8473604651227084920341470902772e-06 1:1 2:1 3:0 4:3 5:1 6:4 7:0 8:0 9:84 10:3 #
-2.9455453087476294307060342009263e-06 1:7 2:0 3:0 4:1 5:0 6:34 7:0 8:0 9:52 10:0 #
-3.5346543704971550627373568648215e-06 1:5 2:1 3:2 4:2 5:2 6:88 7:5 8:166 9:61 10:30 #
-3.7310240577469969400811310861199e-06 1:9 2:1 3:3 4:0 5:0 6:171 7:10 8:85 9:0 10:0 #
-3.0437301523725503693779213115755e-06 1:6 2:0 3:0 4:1 5:0 6:61 7:0 8:0 9:0 10:0 #
-2.749175621497787553362259979628e-06 1:3 2:0 3:0 4:0 5:0 6:29 7:0 8:0 9:0 10:0 #
-4.221948275871602056957040266516e-06 1:14 2:0 3:9 4:7 5:2 6:116 7:0 8:105 9:390 10:80 #
-2.6509907778728666146903728689788e-06 1:0 2:0 3:0 4:0 5:0 6:0 7:0 8:0 9:0 10:0 #
-4.0255785886772713308445238722388e-06 1:19 2:4 3:2 4:0 5:0 6:345 7:96 8:54 9:0 10:0 #
-2.749175621497787553362259979628e-06 1:3 2:0 3:0 4:2 5:0 6:20 7:0 8:0 9:12 10:0 #
-3.7310240577469969400811310861199e-06 1:9 2:0 3:11 4:4 5:0 6:110 7:0 8:83 9:217 10:0 #
-3.0199567480382334859413846761544e-06 1:3 2:1 3:3 4:0 5:0 6:73 7:91 8:215 9:0 10:0 #
-3.3382846832473131853935826435231e-06 1:0 2:0 3:1 4:6 5:0 6:0 7:0 8:81 9:297 10:0 #
-3.8292089013719183022694918239193e-06 1:8 2:0 3:1 4:0 5:0 6:206 7:0 8:3 9:0 10:0 #
-4.6146876503712858116445887091128e-06 1:6 2:1 3:0 4:3 5:0 6:576 7:42 8:0 9:200 10:0 #
-2.6509907778728666146903728689788e-06 1:2 2:0 3:1 4:1 5:0 6:12 7:0 8:0 9:0 10:0 #
4.9092421812460486276602500410604e-06 1:17 2:2 3:3 4:18 5:0 6:433 7:7 8:42 9:1706 10:0 #
-2.8473604651227084920341470902772e-06 1:1 2:1 3:0 4:3 5:0 6:10 7:50 8:0 9:85 10:0 #
-4.221948275871602056957040266516e-06 1:2 2:1 3:1 4:7 5:2 6:48 7:6 8:45 9:170 10:193 #
-6.6765693664946255237542180327459e-06 1:26 2:3 3:31 4:33 5:0 6:3514 7:31 8:1305 9:2672 10:0 #
-4.4183179631214439343008144878144e-06 1:1 2:0 3:3 4:7 5:0 6:55 7:0 8:177 9:1106 10:0 #
-2.6509907778728666146903728689788e-06 1:3 2:0 3:4 4:0 5:0 6:26 7:0 8:85 9:0 10:0 #
-2.6509907778728666146903728689788e-06 1:0 2:0 3:0 4:1 5:0 6:0 7:0 8:0 9:4 10:0 #
-3.5346543704971550627373568648215e-06 1:6 2:0 3:0 4:3 5:1 6:58 7:0 8:0 9:129 10:21 #
6.8725512205082940289267365296944e-07 1:14 2:18 3:5 4:20 5:5 6:661 7:256 8:1885 9:3542 10:646 #
-3.4364695268722341240654697541723e-06 1:3 2:0 3:2 4:4 5:0 6:8 7:0 8:48 9:289 10:0 #
-3.8292089013719183022694918239193e-06 1:3 2:1 3:0 4:3 5:0 6:51 7:13 8:0 9:410 10:0 #
-3.8292089013719183022694918239193e-06 1:17 2:0 3:4 4:2 5:2 6:196 7:0 8:291 9:54 10:18 #
-3.1419149959974713080498084222247e-06 1:2 2:0 3:4 4:6 5:0 6:7 7:0 8:40 9:227 10:0 #
-2.749175621497787553362259979628e-06 1:9 2:0 3:0 4:0 5:0 6:13 7:0 8:0 9:0 10:0 #
-3.5346543704971550627373568648215e-06 1:5 2:0 3:0 4:0 5:0 6:131 7:0 8:0 9:0 10:0 #
-3.4364695268722341240654697541723e-06 1:13 2:0 3:1 4:2 5:0 6:96 7:0 8:11 9:16 10:0 #
-3.5346543704971550627373568648215e-06 1:22 2:1 3:5 4:3 5:0 6:115 7:14 8:121 9:12 10:0 #
-5.694720930245416137035346926254e-06 1:26 2:0 3:20 4:20 5:3 6:636 7:0 8:1033 9:1820 10:173 #
-4.6146876503712858116445887091128e-06 1:3 2:0 3:4 4:6 5:1 6:165 7:0 8:1920 9:854 10:155 #
-3.4364695268722341240654697541723e-06 1:12 2:0 3:0 4:1 5:0 6:95 7:0 8:0 9:5 10:0 #
2.8473604651227084920341470902772e-06 1:5 2:0 3:1 4:28 5:0 6:103 7:0 8:0 9:3675 10:0 #
-2.8473604651227084920341470902772e-06 1:5 2:0 3:3 4:0 5:0 6:46 7:0 8:51 9:0 10:0 #
-3.4364695268722341240654697541723e-06 1:9 2:0 3:2 4:7 5:0 6:62 7:0 8:22 9:75 10:0 #
-4.6146876503712858116445887091128e-06 1:1 2:0 3:16 4:12 5:0 6:0 7:0 8:742 9:2044 10:0 #
-3.5346543704971550627373568648215e-06 1:17 2:0 3:0 4:2 5:0 6:58 7:0 8:0 9:174 10:0 #
-2.749175621497787553362259979628e-06 1:0 2:0 3:3 4:6 5:0 6:0 7:0 8:16 9:82 10:0 #
-3.4364695268722341240654697541723e-06 1:6 2:1 3:1 4:2 5:1 6:81 7:91 8:10 9:43 10:1 #
-3.8292089013719183022694918239193e-06 1:10 2:0 3:0 4:7 5:1 6:110 7:0 8:0 9:190 10:13 #
-3.8292089013719183022694918239193e-06 1:12 2:0 3:0 4:1 5:0 6:179 7:0 8:0 9:0 10:0 #
-3.8292089013719183022694918239193e-06 1:0 2:0 3:0 4:7 5:0 6:0 7:0 8:0 9:570 10:0 #
-3.0437301523725503693779213115755e-06 1:7 2:3 3:2 4:2 5:1 6:59 7:35 8:316 9:25 10:3 #
-4.0255785886217601796132660452177e-06 1:7 2:2 3:2 4:6 5:0 6:144 7:61 8:47 9:504 10:0 #
-3.9273937449968392409413789345685e-06 1:12 2:5 3:1 4:4 5:0 6:190 7:162 8:0 9:183 10:0 #
-2.8473604651227084920341470902772e-06 1:4 2:0 3:0 4:1 5:0 6:45 7:0 8:0 9:13 10:0 #
-3.8292089013719183022694918239193e-06 1:23 2:0 3:1 4:4 5:0 6:134 7:0 8:3 9:63 10:0 #
-4.0255785886217601796132660452177e-06 1:11 2:6 3:1 4:3 5:0 6:269 7:36 8:61 9:232 10:0 #
-3.9273937449968392409413789345685e-06 1:22 2:0 3:1 4:0 5:0 6:256 7:0 8:0 9:0 10:0 #
-3.0437301523725503693779213115755e-06 1:2 2:3 3:0 4:4 5:0 6:5 7:10 8:0 9:174 10:0 #
-3.5346543704971550627373568648215e-06 1:3 2:0 3:6 4:6 5:1 6:60 7:0 8:79 9:205 10:11 #
-3.1419149959974713080498084222247e-06 1:6 2:0 3:3 4:2 5:0 6:25 7:0 8:49 9:188 10:0 #
-2.6509907778728666146903728689788e-06 1:1 2:0 3:0 4:1 5:0 6:0 7:0 8:0 9:63 10:0 #
-3.8292089013719183022694918239193e-06 1:4 2:0 3:15 4:9 5:0 6:50 7:0 8:1944 9:904 10:0 #
-5.0074270248709695663321371517096e-06 1:15 2:5 3:0 4:6 5:0 6:366 7:4179 8:0 9:226 10:0 #
-3.4364695268722341240654697541723e-06 1:8 2:0 3:4 4:1 5:0 6:124 7:0 8:280 9:20 10:0 #
-3.8292089013719183022694918239193e-06 1:1 2:0 3:3 4:15 5:0 6:1 7:0 8:37 9:608 10:0 #
-2.6509907778728666146903728689788e-06 1:2 2:4 3:1 4:1 5:1 6:12 7:23 8:15 9:0 10:0 #
-3.9273937449968392409413789345685e-06 1:3 2:0 3:0 4:4 5:0 6:143 7:0 8:0 9:448 10:0 #
-3.9273937449968392409413789345685e-06 1:1 2:0 3:0 4:4 5:0 6:212 7:0 8:0 9:245 10:0 #
-3.9273937449968392409413789345685e-06 1:3 2:0 3:0 4:9 5:0 6:20 7:0 8:0 9:765 10:0 #
-4.6146876503712858116445887091128e-06 1:12 2:1 3:5 4:3 5:1 6:244 7:0 8:116 9:1190 10:4 #
-2.749175621497787553362259979628e-06 1:6 2:0 3:1 4:1 5:0 6:18 7:0 8:6 9:7 10:0 #
-2.5528059342479456760184857583296e-06 1:2 2:2 3:15 4:2 5:0 6:1 7:0 8:812 9:44 10:0 #
-5.0074270248709695663321371517096e-06 1:10 2:1 3:17 4:19 5:0 6:146 7:50 8:535 9:1932 10:0 #
-2.6509907778728666146903728689788e-06 1:1 2:0 3:0 4:2 5:0 6:0 7:0 8:0 9:36 10:0 #
3.9273937449968417820402206974695e-07 1:12 2:1 3:13 4:24 5:1 6:1554 7:75 8:558 9:2268 10:479 #
3.9077567762718802947888296905887e-05 1:11 2:1 3:1 4:2 5:1 6:204 7:67 8:9 9:35 10:14 #
-4.0255785886217601796132660452177e-06 1:13 2:5 3:4 4:4 5:1 6:266 7:209 8:143 9:212 10:0 #
-3.7310240577470104926082871549253e-06 1:3 2:0 3:4 4:8 5:0 6:2 7:0 8:157 9:508 10:0 #
-3.8292089013719183022694918239193e-06 1:7 2:0 3:0 4:6 5:0 6:98 7:0 8:0 9:291 10:0 #
3.9077567762718802947888296905887e-05 1:1 2:0 3:0 4:0 5:0 6:16 7:0 8:0 9:0 10:0 #
7.2656784282441511557855406966411e-06 1:10 2:3 3:5 4:16 5:1 6:364 7:49 8:158 9:1497 10:13 #
-5.0074270248709695663321371517096e-06 1:24 2:0 3:10 4:16 5:3 6:346 7:0 8:386 9:562 10:148 #
-3.0437301523725503693779213115755e-06 1:3 2:0 3:2 4:5 5:0 6:29 7:0 8:1 9:83 10:0 #
2.3344219378397001622227682759991e-05 1:12 2:0 3:0 4:1 5:0 6:571 7:0 8:0 9:119 10:0 #
-3.1419149959974713080498084222247e-06 1:3 2:0 3:1 4:2 5:0 6:37 7:0 8:21 9:180 10:0 #
-3.0437301523725503693779213115755e-06 1:2 2:0 3:0 4:1 5:0 6:56 7:0 8:0 9:41 10:0 #
-4.6146876503712858116445887091128e-06 1:3 2:0 3:0 4:4 5:0 6:123 7:0 8:0 9:1168 10:0 #
-4.221948275871602056957040266516e-06 1:7 2:0 3:0 4:2 5:0 6:257 7:0 8:0 9:343 10:0 #
-2.6509907778728666146903728689788e-06 1:0 2:0 3:0 4:0 5:0 6:0 7:0 8:0 9:0 10:0 #
-2.8473604651227084920341470902772e-06 1:3 2:0 3:1 4:5 5:0 6:36 7:0 8:5 9:25 10:0 #
9.8184843624921044551005517436737e-08 1:19 2:4 3:22 4:44 5:3 6:405 7:207 8:4300 9:7133 10:646 #
1.8753305132359996695119372378535e-05 1:0 2:1 3:0 4:9 5:2 6:0 7:9 8:0 9:584 10:308 #
-2.6509907778728666146903728689788e-06 1:2 2:0 3:0 4:3 5:0 6:5 7:0 8:0 9:25 10:0 #
-5.694720930245416137035346926254e-06 1:46 2:0 3:0 4:2 5:0 6:1325 7:0 8:0 9:174 10:0 #
-3.1419149959974713080498084222247e-06 1:3 2:0 3:0 4:2 5:1 6:45 7:0 8:0 9:65 10:4 #
3.3365437937820749294930144923654e-06 1:13 2:0 3:0 4:11 5:0 6:293 7:0 8:0 9:2711 10:0 #
-2.6509907778728666146903728689788e-06 1:2 2:0 3:4 4:1 5:0 6:1 7:0 8:65 9:35 10:0 #
-2.6509907778728666146903728689788e-06 1:1 2:0 3:0 4:0 5:0 6:0 7:0 8:0 9:0 10:0 #
-2.6509907778728666146903728689788e-06 1:0 2:0 3:1 4:1 5:0 6:0 7:0 8:39 9:7 10:0 #
-2.749175621497787553362259979628e-06 1:4 2:1 3:2 4:1 5:1 6:12 7:41 8:56 9:9 10:4 #
-2.6509907778728666146903728689788e-06 1:0 2:0 3:0 4:1 5:0 6:0 7:0 8:0 9:51 10:0 #
-3.8292089013719183022694918239193e-06 1:6 2:0 3:5 4:11 5:1 6:83 7:0 8:35 9:329 10:11 #
-4.5165028067463648729727015984636e-06 1:6 2:1 3:2 4:3 5:1 6:291 7:6 8:64 9:184 10:113 #
-2.6509907778728666146903728689788e-06 1:0 2:0 3:3 4:2 5:0 6:0 7:0 8:0 9:23 10:0 #
-2.749175621497787553362259979628e-06 1:0 2:1 3:0 4:3 5:0 6:0 7:9 8:0 9:79 10:0 #
-2.6509907778728666146903728689788e-06 1:3 2:2 3:1 4:3 5:0 6:2 7:29 8:0 9:0 10:0 #
2.1517407401092490144963939591172e-05 1:11 2:2 3:4 4:5 5:0 6:555 7:47 8:145 9:198 10:0 #
-2.749175621497787553362259979628e-06 1:0 2:2 3:0 4:4 5:0 6:0 7:56 8:0 9:58 10:0 #
-4.6146876503712858116445887091128e-06 1:10 2:0 3:0 4:2 5:0 6:444 7:0 8:0 9:592 10:0 #
-4.6146876503712858116445887091128e-06 1:17 2:1 3:1 4:5 5:0 6:374 7:50 8:69 9:485 10:0 #
-3.1419149959974713080498084222247e-06 1:0 2:0 3:2 4:6 5:0 6:0 7:0 8:65 9:255 10:0 #
-3.8292089013719183022694918239193e-06 1:9 2:1 3:0 4:6 5:0 6:113 7:24 8:0 9:300 10:0 #
-3.1419149959974713080498084222247e-06 1:2 2:0 3:1 4:7 5:0 6:0 7:0 8:7 9:201 10:0 #
5.5965360866204951983634598156048e-06 1:44 2:1 3:17 4:8 5:3 6:663 7:22 8:316 9:128 10:168 #
-2.6509907778728666146903728689788e-06 1:1 2:0 3:0 4:1 5:0 6:6 7:0 8:0 9:1 10:0 #
-2.6509907778728666146903728689788e-06 1:1 2:0 3:2 4:2 5:0 6:0 7:0 8:44 9:62 10:0 #
-2.8473604651227084920341470902772e-06 1:5 2:0 3:2 4:2 5:0 6:27 7:0 8:4 9:4 10:0 #
-2.749175621497787553362259979628e-06 1:2 2:1 3:0 4:1 5:0 6:21 7:0 8:0 9:1 10:0 #
-3.1419149959974713080498084222247e-06 1:7 2:4 3:0 4:10 5:1 6:17 7:72 8:0 9:92 10:6 #
-3.8292089013719183022694918239193e-06 1:6 2:0 3:3 4:4 5:0 6:34 7:0 8:46 9:439 10:0 #
-2.8473604651227084920341470902772e-06 1:4 2:0 3:3 4:0 5:0 6:45 7:0 8:34 9:0 10:0 #
-2.6509907778728666146903728689788e-06 1:1 2:0 3:0 4:1 5:0 6:1 7:0 8:0 9:6 10:0 #
-5.7929057738703370757072340369032e-06 1:13 2:7 3:6 4:22 5:0 6:470 7:248 8:326 9:4223 10:0 #
6.8729390537444731185703862205716e-07 1:15 2:2 3:13 4:23 5:4 6:287 7:321 8:1653 9:3890 10:761 #
9.6431482319702527261640057076875e-16 1:3 2:1 3:30 4:67 5:3 6:167 7:2 8:9444 9:31524 10:1100 #
-2.6509907778728666146903728689788e-06 1:2 2:0 3:0 4:0 5:0 6:0 7:0 8:0 9:0 10:0 #
-2.8473604651782196432654049172983e-06 1:0 2:1 3:1 4:2 5:0 6:0 7:572 8:14 9:24 10:0 #
-3.5346543704971550627373568648215e-06 1:1 2:0 3:3 4:8 5:0 6:2 7:0 8:95 9:378 10:0 #
-3.5346543704971550627373568648215e-06 1:3 2:0 3:5 4:1 5:0 6:160 7:0 8:286 9:64 10:0 #
1.9244229350484605623643544203283e-05 1:39 2:1 3:8 4:3 5:1 6:633 7:0 8:1023 9:23 10:7 #
-2.749175621497787553362259979628e-06 1:4 2:0 3:4 4:1 5:0 6:22 7:0 8:46 9:24 10:0 #
-2.6509907778728666146903728689788e-06 1:3 2:0 3:0 4:0 5:0 6:10 7:0 8:0 9:0 10:0 #
-4.5165028067463648729727015984636e-06 1:5 2:0 3:0 4:5 5:0 6:469 7:0 8:0 9:114 10:0 #
6.8729390537444731185703862205716e-07 1:55 2:3 3:40 4:36 5:2 6:1096 7:52 8:2189 9:4452 10:54 #
-3.4364695268722341240654697541723e-06 1:9 2:3 3:3 4:0 5:0 6:118 7:0 8:59 9:0 10:0 #
1.9636968724984200439871630944344e-06 1:18 2:7 3:6 4:20 5:3 6:342 7:126 8:73 9:1735 10:412 #
-3.4364695268722341240654697541723e-06 1:0 2:1 3:4 4:6 5:0 6:0 7:16 8:702 9:420 10:0 #
-2.650990777836641980151621833528e-06 1:0 2:0 3:0 4:0 5:1 6:0 7:0 8:0 9:0 10:0 #
-4.6146876503712858116445887091128e-06 1:0 2:0 3:0 4:4 5:0 6:0 7:0 8:0 9:1560 10:0 #
-2.8473604651227084920341470902772e-06 1:3 2:1 3:1 4:3 5:0 6:35 7:69 8:23 9:3 10:0 #
-2.6509907778728666146903728689788e-06 1:1 2:0 3:0 4:0 5:0 6:5 7:0 8:0 9:0 10:0 #
3.9077567762718802947888296905887e-05 1:13 2:0 3:1 4:6 5:2 6:161 7:0 8:15 9:445 10:48 #
-4.3201331194965229956289273771652e-06 1:16 2:0 3:0 4:4 5:0 6:319 7:0 8:0 9:162 10:0 #
-3.5346543704971550627373568648215e-06 1:8 2:0 3:6 4:10 5:0 6:94 7:0 8:191 9:138 10:0 #
-4.3201331194965229956289273771652e-06 1:16 2:1 3:10 4:3 5:0 6:414 7:5 8:449 9:28 10:0 #
-2.749175621497787553362259979628e-06 1:5 2:2 3:2 4:0 5:0 6:28 7:29 8:31 9:0 10:0 #
-6.5783845228697045850823309220967e-06 1:3 2:0 3:2 4:6 5:2 6:11 7:0 8:341 9:6073 10:700 #
-2.8473604651227084920341470902772e-06 1:5 2:0 3:0 4:2 5:0 6:38 7:0 8:0 9:4 10:0 #
-2.6509907778728666146903728689788e-06 1:0 2:0 3:2 4:1 5:0 6:0 7:0 8:84 9:70 10:0 #
-3.8292089013719183022694918239193e-06 1:16 2:1 3:1 4:2 5:0 6:206 7:11 8:50 9:90 10:0 #
3.9077567762718802947888296905887e-05 1:0 2:0 3:5 4:7 5:0 6:0 7:0 8:87 9:281 10:0 #
-3.9273937449968392409413789345685e-06 1:10 2:1 3:6 4:8 5:0 6:20 7:41 8:310 9:801 10:0 #
-3.9273937449968392409413789345685e-06 1:5 2:1 3:10 4:2 5:0 6:287 7:75 8:490 9:170 10:0 #
-3.4364695268722341240654697541723e-06 1:5 2:0 3:1 4:2 5:0 6:112 7:0 8:20 9:5 10:0 #
3.9077567762718802947888296905887e-05 1:11 2:0 3:0 4:0 5:0 6:267 7:0 8:0 9:0 10:0 #
-3.1419149959974713080498084222247e-06 1:2 2:0 3:0 4:2 5:0 6:3 7:0 8:0 9:230 10:0 #
-4.0255785886217601796132660452177e-06 1:10 2:0 3:40 4:10 5:0 6:32 7:0 8:392 9:1076 10:0 #
1.5709574979987362892996146518376e-06 1:26 2:0 3:0 4:6 5:2 6:1295 7:0 8:0 9:807 10:187 #
-2.8473604651227084920341470902772e-06 1:4 2:0 3:0 4:1 5:1 6:17 7:0 8:0 9:8 10:13 #
-3.7310240577469969400811310861199e-06 1:14 2:2 3:2 4:3 5:3 6:114 7:0 8:290 9:14 10:30 #
-4.6146876503712858116445887091128e-06 1:14 2:1 3:0 4:6 5:2 6:231 7:12 8:0 9:455 10:108 #
3.9077567762718802947888296905887e-05 1:25 2:0 3:4 4:8 5:0 6:156 7:0 8:157 9:203 10:0 #
-2.6509907778728666146903728689788e-06 1:1 2:0 3:1 4:0 5:0 6:3 7:0 8:22 9:0 10:0 #
-2.6509907778728666146903728689788e-06 1:1 2:0 3:4 4:0 5:0 6:4 7:0 8:41 9:0 10:0 #
-2.749175621497787553362259979628e-06 1:0 2:0 3:0 4:1 5:0 6:0 7:0 8:0 9:86 10:0 #
-2.6509907778728666146903728689788e-06 1:0 2:0 3:0 4:0 5:0 6:0 7:0 8:0 9:0 10:0 #
-2.6509907778728666146903728689788e-06 1:0 2:0 3:0 4:0 5:0 6:0 7:0 8:0 9:0 10:0 #
3.9077567762718802947888296905887e-05 1:6 2:3 3:0 4:10 5:2 6:54 7:23 8:0 9:231 10:100 #
-2.6509907778728666146903728689788e-06 1:2 2:1 3:0 4:3 5:0 6:0 7:2 8:0 9:18 10:0 #
-4.6894216750900983726861072364844e-06 1:16 2:4 3:4 4:3 5:1 6:345 7:154 8:76 9:859 10:13 #
-3.1419149959974713080498084222247e-06 1:0 2:0 3:12 4:7 5:0 6:0 7:0 8:469 9:343 10:0 #
-2.8473604651227084920341470902772e-06 1:0 2:0 3:1 4:2 5:0 6:0 7:0 8:0 9:150 10:0 #
-4.5165028067463648729727015984636e-06 1:19 2:7 3:5 4:5 5:2 6:370 7:135 8:206 9:163 10:4 #
-2.8473604651227084920341470902772e-06 1:8 2:0 3:1 4:1 5:0 6:21 7:0 8:0 9:18 10:0 #
-4.8093164481558890095713211521034e-06 1:9 2:5 3:1 4:4 5:5 6:416 7:383 8:12 9:65 10:159 #
-3.0437301523725503693779213115755e-06 1:1 2:0 3:2 4:2 5:0 6:47 7:0 8:115 9:78 10:0 #
3.0498835927191031869732534831385e-05 1:6 2:1 3:9 4:13 5:2 6:84 7:1 8:4894 9:1433 10:162 #
-2.8473604651227084920341470902772e-06 1:2 2:0 3:1 4:2 5:0 6:8 7:0 8:24 9:81 10:0 #
-2.6509907778728666146903728689788e-06 1:0 2:0 3:0 4:0 5:0 6:0 7:0 8:0 9:0 10:0 #
3.9077567762718802947888296905887e-05 1:3 2:0 3:0 4:8 5:0 6:33 7:0 8:0 9:819 10:0 #
-3.1419149959974713080498084222247e-06 1:1 2:0 3:0 4:1 5:0 6:67 7:0 8:0 9:52 10:0 #
-3.1419149959974713080498084222247e-06 1:3 2:6 3:1 4:1 5:1 6:89 7:16 8:99 9:13 10:1 #
-2.6509907778728666146903728689788e-06 1:0 2:0 3:1 4:0 5:0 6:0 7:0 8:8 9:0 10:0 #
-2.6509907778728666146903728689788e-06 1:1 2:1 3:0 4:2 5:0 6:0 7:2 8:0 9:12 10:0 #
3.9077567762718802947888296905887e-05 1:4 2:0 3:1 4:15 5:0 6:64 7:0 8:7 9:307 10:0 #
-2.8473604651227084920341470902772e-06 1:1 2:0 3:3 4:2 5:0 6:0 7:0 8:60 9:121 10:0 #
-2.8473604651227084920341470902772e-06 1:4 2:1 3:0 4:4 5:0 6:16 7:7 8:0 9:59 10:0 #
3.2400998396223922467216955328739e-06 1:16 2:2 3:2 4:10 5:3 6:254 7:1999 8:47 9:958 10:337 #
-5.4983512429955742596915727049556e-06 1:9 2:13 3:1 4:1 5:4 6:1163 7:501 8:50 9:12 10:27 #
-3.8292089013719183022694918239193e-06 1:9 2:0 3:6 4:4 5:0 6:235 7:0 8:1934 9:156 10:0 #
-3.5346543704971550627373568648215e-06 1:5 2:1 3:0 4:3 5:0 6:55 7:226 8:0 9:183 10:0 #
-2.6509907778728666146903728689788e-06 1:0 2:0 3:0 4:0 5:0 6:0 7:0 8:0 9:0 10:0 #
-2.6509907778728666146903728689788e-06 1:3 2:0 3:0 4:2 5:0 6:6 7:0 8:0 9:5 10:0 #
-4.3201331194965501006832395147761e-06 1:4 2:0 3:38 4:18 5:0 6:36 7:0 8:1325 9:1327 10:0 #
-3.5346543704971550627373568648215e-06 1:9 2:4 3:3 4:3 5:0 6:127 7:56 8:8 9:39 10:0 #
-3.8292089013719183022694918239193e-06 1:5 2:0 3:2 4:6 5:0 6:0 7:0 8:103 9:569 10:0 #
-3.6981241405595483898974436265394e-06 1:5 2:0 3:3 4:4 5:1 6:52 7:0 8:75 9:107 10:53 #
1.9136964585130578254826630435481e-05 1:5 2:0 3:1 4:10 5:1 6:50 7:0 8:84 9:946 10:179 #
-6.1856451483700208303947824794999e-06 1:3 2:2 3:18 4:24 5:3 6:10 7:0 8:3037 9:6289 10:325 #
-2.8473604651227084920341470902772e-06 1:2 2:0 3:0 4:2 5:1 6:16 7:0 8:0 9:1 10:20 #
-3.0437301523725503693779213115755e-06 1:4 2:0 3:1 4:3 5:0 6:32 7:0 8:0 9:79 10:0 #
-5.7929057738703370757072340369032e-06 1:15 2:3 3:1 4:2 5:0 6:2098 7:97 8:2 9:46 10:0 #
-3.5346543704971550627373568648215e-06 1:5 2:0 3:22 4:6 5:0 6:118 7:0 8:645 9:270 10:0 #
-2.6509907778728666146903728689788e-06 1:0 2:0 3:0 4:0 5:0 6:0 7:0 8:0 9:0 10:0 #
-4.0255785886217601796132660452177e-06 1:26 2:4 3:1 4:1 5:0 6:216 7:1085 8:25 9:58 10:0 #
-2.6509907778728666146903728689788e-06 1:1 2:0 3:0 4:0 5:0 6:5 7:0 8:0 9:0 10:0 #
-3.7310240577469969400811310861199e-06 1:6 2:3 3:0 4:6 5:4 6:51 7:44 8:0 9:77 10:55 #
-2.6509907778728666146903728689788e-06 1:2 2:0 3:0 4:1 5:0 6:1 7:0 8:0 9:3 10:0 #
-3.4364695268722341240654697541723e-06 1:8 2:2 3:1 4:4 5:0 6:53 7:146 8:26 9:122 10:0 #
-2.6509907778728666146903728689788e-06 1:0 2:0 3:0 4:1 5:0 6:0 7:0 8:0 9:23 10:0 #
-2.6509907778728666146903728689788e-06 1:1 2:0 3:0 4:1 5:0 6:1 7:0 8:0 9:0 10:0 #
-3.2400998396223922467216955328739e-06 1:4 2:0 3:0 4:3 5:0 6:54 7:0 8:0 9:116 10:0 #
-5.7929057738703370757072340369032e-06 1:10 2:2 3:10 4:38 5:2 6:68 7:18 8:814 9:4493 10:88 #
-3.8292089013719183022694918239193e-06 1:4 2:0 3:0 4:3 5:0 6:173 7:0 8:0 9:37 10:0 #
-3.8292089013719183022694918239193e-06 1:16 2:0 3:0 4:0 5:0 6:212 7:0 8:0 9:0 10:0 #
-4.9092421812460486276602500410604e-06 1:7 2:0 3:16 4:7 5:0 6:342 7:0 8:731 9:1250 10:0 #
3.9077567762718802947888296905887e-05 1:0 2:0 3:0 4:4 5:0 6:0 7:0 8:0 9:110 10:0 #
1.6691423416236572279715017624868e-06 1:7 2:8 3:7 4:23 5:2 6:214 7:138 8:1045 9:2792 10:452 #
-4.3201331194965229956289273771652e-06 1:8 2:1 3:13 4:9 5:0 6:32 7:16 8:1023 9:1217 10:0 #
-2.8473604651227084920341470902772e-06 1:4 2:0 3:4 4:3 5:0 6:10 7:0 8:225 9:151 10:0 #
-2.8473604651227084920341470902772e-06 1:0 2:1 3:0 4:1 5:0 6:0 7:42 8:0 9:159 10:0 #
-2.6509907778728666146903728689788e-06 1:0 2:0 3:0 4:0 5:0 6:0 7:0 8:0 9:0 10:0 #
-4.5165028067463648729727015984636e-06 1:8 2:1 3:7 4:10 5:0 6:193 7:3 8:704 9:982 10:0 #
-3.0437301523725503693779213115755e-06 1:4 2:0 3:1 4:3 5:1 6:12 7:0 8:100 9:129 10:4 #
-2.6509907778728666146903728689788e-06 1:4 2:0 3:0 4:1 5:0 6:12 7:0 8:0 9:7 10:0 #
-2.6509907778728666146903728689788e-06 1:2 2:0 3:0 4:1 5:1 6:15 7:0 8:0 9:4 10:1 #
3.9077567762718802947888296905887e-05 1:5 2:1 3:0 4:5 5:1 6:292 7:201 8:0 9:139 10:1 #
-2.749175621497787553362259979628e-06 1:4 2:0 3:0 4:1 5:1 6:16 7:0 8:0 9:1 10:0 #
-2.650990778263855329077063396892e-06 1:3 2:0 3:0 4:0 5:0 6:4 7:0 8:0 9:0 10:0 #
-4.4183179631214439343008144878144e-06 1:9 2:2 3:5 4:2 5:1 6:264 7:55 8:30 9:126 10:83 #
-3.4364695268722341240654697541723e-06 1:6 2:1 3:1 4:1 5:0 6:99 7:0 8:3 9:35 10:0 #
-2.8473604651227084920341470902772e-06 1:9 2:0 3:0 4:2 5:0 6:32 7:0 8:0 9:0 10:0 #
-2.6509907778728666146903728689788e-06 1:0 2:0 3:0 4:0 5:0 6:0 7:0 8:0 9:0 10:0 #
-2.749175621497787553362259979628e-06 1:4 2:0 3:3 4:1 5:0 6:18 7:0 8:151 9:40 10:0 #
-4.712872493996206750316475819762e-06 1:11 2:0 3:16 4:16 5:0 6:183 7:0 8:537 9:1486 10:0 #
3.9077567762718802947888296905887e-05 1:16 2:1 3:2 4:10 5:2 6:233 7:0 8:181 9:645 10:9 #
-4.6146876503712858116445887091128e-06 1:5 2:2 3:0 4:6 5:1 6:340 7:12 8:0 9:728 10:9 #
1.767327185248578166643388873136e-06 1:27 2:4 3:1 4:6 5:3 6:1519 7:37 8:0 9:485 10:40 #
-5.203796712120811443675911373008e-06 1:29 2:2 3:0 4:4 5:0 6:852 7:13 8:0 9:162 10:0 #
-5.203796712120811443675911373008e-06 1:7 2:1 3:0 4:2 5:1 6:700 7:21 8:0 9:112 10:185 #
-2.749175621497787553362259979628e-06 1:2 2:1 3:0 4:2 5:0 6:23 7:2 8:0 9:0 10:0 #
3.9077567762718802947888296905887e-05 1:18 2:0 3:3 4:3 5:0 6:108 7:0 8:327 9:47 10:0 #
-4.0255785886217601796132660452177e-06 1:6 2:0 3:2 4:1 5:0 6:329 7:0 8:74 9:0 10:0 #
2.9455453087476313365301655231021e-07 1:2 2:1 3:5 4:22 5:0 6:13 7:0 8:4888 9:10425 10:0 #
-3.5346543704971550627373568648215e-06 1:6 2:0 3:1 4:1 5:0 6:101 7:0 8:5 9:62 10:0 #
1.7280532477986169909546856904292e-05 1:19 2:0 3:3 4:3 5:1 6:456 7:0 8:335 9:207 10:100 #
-5.203796712120811443675911373008e-06 1:25 2:10 3:3 4:7 5:1 6:776 7:208 8:183 9:490 10:1 #
-2.6509907778728666146903728689788e-06 1:0 2:0 3:0 4:3 5:0 6:0 7:0 8:0 9:32 10:0 #
-2.6509907778728666146903728689788e-06 1:0 2:0 3:0 4:1 5:0 6:0 7:0 8:0 9:44 10:0 #
1.8655120288734991053152759837852e-06 1:13 2:1 3:0 4:8 5:0 6:490 7:19 8:0 9:3390 10:0 #
-2.7125251813369353528755754251245e-06 1:1 2:0 3:0 4:1 5:0 6:1 7:0 8:0 9:63 10:0 #
-2.8473604651227084920341470902772e-06 1:6 2:0 3:6 4:1 5:0 6:33 7:0 8:164 9:41 10:0 #
-4.3201331194965229956289273771652e-06 1:15 2:0 3:14 4:8 5:0 6:109 7:0 8:679 9:880 10:0 #
3.9077567762718802947888296905887e-05 1:5 2:1 3:0 4:6 5:0 6:233 7:19 8:0 9:216 10:0 #
2.9455453087476313365301655231021e-07 1:30 2:2 3:1 4:12 5:0 6:2393 7:161 8:15 9:2622 10:0 #
-2.6509907778728666146903728689788e-06 1:0 2:0 3:0 4:0 5:0 6:0 7:0 8:0 9:0 10:0 #
-4.0255785886217601796132660452177e-06 1:6 2:16 3:2 4:2 5:4 6:39 7:330 8:392 9:144 10:186 #
-2.6509907778728666146903728689788e-06 1:3 2:0 3:0 4:0 5:0 6:2 7:0 8:0 9:0 10:0 #
-2.6509907778728666146903728689788e-06 1:3 2:0 3:1 4:0 5:0 6:9 7:0 8:3 9:0 10:0 #
6.1856451483700479354490946171108e-06 1:7 2:5 3:4 4:18 5:0 6:204 7:405 8:697 9:2127 10:0 #
-2.6509907778728666146903728689788e-06 1:0 2:0 3:0 4:0 5:0 6:0 7:0 8:0 9:0 10:0 #
-2.6509907778728666146903728689788e-06 1:2 2:0 3:0 4:0 5:0 6:10 7:0 8:0 9:0 10:0 #
-4.5165028067463648729727015984636e-06 1:14 2:2 3:0 4:0 5:1 6:458 7:179 8:0 9:0 10:11 #
-3.1419149964415605178998710383942e-06 1:3 2:0 3:0 4:0 5:0 6:83 7:0 8:0 9:0 10:0 #
-2.749175621497787553362259979628e-06 1:1 2:0 3:0 4:3 5:0 6:5 7:0 8:0 9:49 10:0 #
3.5112035515911656932360775107416e-06 1:3 2:1 3:1 4:14 5:0 6:2 7:844 8:0 9:3307 10:0 #
-2.6509907778728666146903728689788e-06 1:1 2:1 3:0 4:0 5:0 6:6 7:0 8:0 9:0 10:0 #
-2.6509907778728666146903728689788e-06 1:3 2:0 3:0 4:1 5:0 6:4 7:0 8:0 9:4 10:0 #
-3.0437301523725503693779213115755e-06 1:1 2:0 3:1 4:5 5:0 6:0 7:0 8:0 9:193 10:0 #
-4.0255785886217601796132660452177e-06 1:8 2:4 3:5 4:7 5:2 6:53 7:20 8:772 9:825 10:21 #
-2.6509907778728666146903728689788e-06 1:2 2:0 3:1 4:1 5:0 6:19 7:0 8:87 9:5 10:0 #
-2.8473604651227084920341470902772e-06 1:1 2:0 3:2 4:5 5:0 6:6 7:0 8:0 9:68 10:0 #
-6.0874215214214818768794119929755e-06 1:24 2:4 3:9 4:15 5:4 6:1078 7:729 8:1721 9:601 10:647 #
-3.1419149959974713080498084222247e-06 1:6 2:2 3:0 4:2 5:0 6:43 7:6 8:0 9:66 10:0 #
-2.8473604651227084920341470902772e-06 1:10 2:0 3:6 4:2 5:0 6:41 7:0 8:962 9:97 10:0 #
-2.6509907778728666146903728689788e-06 1:0 2:0 3:1 4:0 5:0 6:0 7:0 8:20 9:0 10:0 #
-3.1419149959974713080498084222247e-06 1:3 2:0 3:0 4:4 5:2 6:42 7:0 8:0 9:88 10:6 #
3.9077567762718802947888296905887e-05 1:5 2:0 3:0 4:1 5:0 6:30 7:0 8:0 9:59 10:0 #
-2.6509907778728666146903728689788e-06 1:0 2:0 3:0 4:1 5:0 6:0 7:0 8:0 9:4 10:0 #
-5.694720930245416137035346926254e-06 1:20 2:7 3:5 4:5 5:0 6:783 7:174 8:376 9:1515 10:0 #
-3.9273937449968392409413789345685e-06 1:1 2:0 3:10 4:11 5:0 6:2 7:0 8:210 9:881 10:0 #
-2.6509907778728666146903728689788e-06 1:3 2:0 3:0 4:0 5:0 6:11 7:0 8:0 9:0 10:0 #
-3.3382846832473131853935826435231e-06 1:3 2:0 3:0 4:3 5:0 6:23 7:0 8:0 9:211 10:0 #
-2.8473604651227084920341470902772e-06 1:2 2:0 3:0 4:1 5:0 6:1 7:0 8:0 9:131 10:0 #
-4.5165028067463648729727015984636e-06 1:8 2:0 3:1 4:14 5:1 6:296 7:0 8:0 9:522 10:0 #
-4.0255785886217601796132660452177e-06 1:4 2:0 3:0 4:1 5:0 6:326 7:0 8:0 9:18 10:0 #
-3.9273937449968392409413789345685e-06 1:8 2:3 3:2 4:4 5:1 6:98 7:110 8:6 9:496 10:4 #
-2.6509907778728666146903728689788e-06 1:1 2:0 3:2 4:2 5:0 6:0 7:0 8:10 9:28 10:0 #
-2.6509907778728666146903728689788e-06 1:0 2:0 3:0 4:0 5:0 6:0 7:0 8:0 9:0 10:0 #
-3.9273937449968392409413789345685e-06 1:2 2:1 3:0 4:3 5:0 6:179 7:3 8:0 9:405 10:0 #
-4.0255785886217601796132660452177e-06 1:5 2:0 3:9 4:12 5:1 6:52 7:0 8:109 9:722 10:16 #
-4.3201331194965229956289273771652e-06 1:23 2:0 3:4 4:5 5:0 6:290 7:0 8:935 9:346 10:0 #
-3.1419149959974713080498084222247e-06 1:8 2:0 3:0 4:2 5:0 6:77 7:0 8:0 9:14 10:0 #
-3.7310240577469969400811310861199e-06 1:7 2:0 3:10 4:6 5:0 6:43 7:0 8:69 9:391 10:0 #
-3.0437301523725503693779213115755e-06 1:3 2:0 3:1 4:6 5:0 6:7 7:0 8:0 9:153 10:0 #
-2.749175621497787553362259979628e-06 1:3 2:1 3:1 4:0 5:0 6:14 7:226 8:2 9:0 10:0 #
-2.749175621497787553362259979628e-06 1:0 2:0 3:3 4:4 5:1 6:0 7:0 8:5 9:65 10:0 #
-2.8473604651227084920341470902772e-06 1:3 2:1 3:6 4:5 5:0 6:3 7:0 8:19 9:107 10:0 #
-5.203796712120811443675911373008e-06 1:4 2:0 3:15 4:23 5:0 6:12 7:0 8:537 9:2541 10:0 #
-4.4183179631214439343008144878144e-06 1:18 2:2 3:8 4:4 5:2 6:257 7:26 8:203 9:157 10:68 #
6.9711238973693883397698793646935e-06 1:19 2:6 3:1 4:5 5:3 6:702 7:500 8:12 9:125 10:95 #
-3.8292089013719183022694918239193e-06 1:4 2:0 3:4 4:10 5:0 6:8 7:0 8:80 9:656 10:0 #
1.9636968724984208910201103487347e-07 1:9 2:3 3:8 4:21 5:2 6:74 7:85 8:349 9:6869 10:740 #
-5.3019815557457323823477984836572e-06 1:12 2:0 3:8 4:11 5:2 6:117 7:0 8:379 9:883 10:481 #
-2.749175621497787553362259979628e-06 1:4 2:0 3:1 4:1 5:0 6:17 7:0 8:0 9:18 10:0 #
-3.8292089013719183022694918239193e-06 1:19 2:1 3:6 4:5 5:1 6:77 7:3 8:312 9:193 10:20 #
-3.8292089013719183022694918239193e-06 1:5 2:1 3:7 4:9 5:0 6:38 7:0 8:451 9:608 10:0 #
-5.203796712120811443675911373008e-06 1:6 2:3 3:0 4:0 5:0 6:983 7:426 8:0 9:0 10:0 #
-2.749175621497787553362259979628e-06 1:2 2:0 3:0 4:2 5:0 6:20 7:0 8:0 9:2 10:0 #
-3.058656799607235937069494441376e-06 1:6 2:0 3:1 4:1 5:2 6:34 7:0 8:50 9:17 10:21 #
-2.6509907778728666146903728689788e-06 1:0 2:0 3:0 4:1 5:0 6:0 7:0 8:0 9:36 10:0 #
-2.749175621497787553362259979628e-06 1:1 2:0 3:2 4:4 5:0 6:1 7:0 8:40 9:87 10:0 #
3.1419149959974713080498084222247e-06 1:11 2:0 3:13 4:16 5:3 6:276 7:0 8:1526 9:2936 10:33 #
3.9077567762718802947888296905887e-05 1:5 2:0 3:0 4:4 5:1 6:301 7:0 8:0 9:68 10:0 #
-3.0437301523725503693779213115755e-06 1:2 2:0 3:1 4:1 5:0 6:40 7:0 8:22 9:109 10:0 #
-3.8292089013719183022694918239193e-06 1:10 2:0 3:2 4:4 5:0 6:138 7:0 8:498 9:184 10:0 #
-2.6509907778728666146903728689788e-06 1:0 2:0 3:0 4:1 5:0 6:0 7:0 8:0 9:0 10:0 #
3.9077567762718802947888296905887e-05 1:5 2:2 3:6 4:8 5:0 6:18 7:43 8:382 9:437 10:0 #
-5.694720930245416137035346926254e-06 1:4 2:5 3:0 4:12 5:3 6:487 7:209 8:0 9:2080 10:183 #
-3.8292089013719183022694918239193e-06 1:17 2:2 3:2 4:4 5:1 6:101 7:176 8:48 9:149 10:28 #
-2.8473604651227084920341470902772e-06 1:10 2:0 3:0 4:2 5:0 6:23 7:0 8:0 9:0 10:0 #
-3.8292089013719183022694918239193e-06 1:6 2:0 3:5 4:3 5:1 6:104 7:0 8:123 9:240 10:2 #
-3.7310240577469969400811310861199e-06 1:5 2:0 3:8 4:8 5:0 6:53 7:0 8:46 9:324 10:0 #
-2.8473604651227084920341470902772e-06 1:5 2:0 3:6 4:2 5:0 6:45 7:0 8:112 9:4 10:0 #
-3.9273937449968392409413789345685e-06 1:11 2:0 3:0 4:4 5:0 6:110 7:0 8:0 9:412 10:0 #
1.4793011470175675446192889439523e-05 1:8 2:2 3:0 4:10 5:0 6:366 7:104 8:0 9:942 10:0 #
-4.4183179631214439343008144878144e-06 1:12 2:5 3:1 4:6 5:0 6:209 7:102 8:14 9:592 10:0 #
-2.9455453087476294307060342009263e-06 1:2 2:0 3:0 4:0 5:0 6:67 7:0 8:0 9:0 10:0 #
-3.7310240577469969400811310861199e-06 1:17 2:0 3:3 4:2 5:0 6:142 7:0 8:163 9:29 10:0 #
-3.8292089013719183022694918239193e-06 1:13 2:0 3:4 4:1 5:1 6:170 7:0 8:244 9:12 10:18 #
-2.6509907778728666146903728689788e-06 1:2 2:0 3:0 4:1 5:0 6:0 7:0 8:0 9:1 10:0 #
-5.4001663993706533210196855943064e-06 1:13 2:0 3:0 4:1 5:0 6:1165 7:0 8:0 9:38 10:0 #
-2.8473604651227084920341470902772e-06 1:3 2:0 3:3 4:3 5:0 6:16 7:0 8:5 9:63 10:0 #
-2.749175621497787553362259979628e-06 1:7 2:0 3:7 4:1 5:0 6:39 7:0 8:186 9:3 10:0 #
-2.9455453087476294307060342009263e-06 1:1 2:0 3:0 4:3 5:0 6:21 7:0 8:0 9:99 10:0 #
-4.3201331194965229956289273771652e-06 1:6 2:3 3:0 4:2 5:2 6:350 7:62 8:0 9:8 10:34 #
-2.6509907778728666146903728689788e-06 1:6 2:0 3:0 4:0 5:0 6:1 7:0 8:0 9:0 10:0 #
-2.9455453087476294307060342009263e-06 1:12 2:1 3:0 4:0 5:1 6:10 7:0 8:0 9:0 10:18 #
-4.6146876503712858116445887091128e-06 1:16 2:1 3:10 4:15 5:3 6:209 7:31 8:451 9:929 10:21 #
-6.0874603047450998917228953688507e-06 1:17 2:7 3:0 4:2 5:3 6:2083 7:1027 8:0 9:112 10:101 #
-2.749175621497787553362259979628e-06 1:0 2:0 3:1 4:3 5:0 6:0 7:0 8:61 9:105 10:0 #
2.8473604651227084920341470902772e-06 1:19 2:0 3:1 4:6 5:0 6:918 7:0 8:134 9:1450 10:0 #
-2.6509907778728666146903728689788e-06 1:0 2:0 3:0 4:0 5:0 6:0 7:0 8:0 9:0 10:0 #
-2.6509907778728666146903728689788e-06 1:1 2:0 3:2 4:1 5:0 6:0 7:0 8:15 9:6 10:0 #
-5.203796712120811443675911373008e-06 1:22 2:0 3:18 4:13 5:3 6:601 7:0 8:1852 9:720 10:92 #
-2.9455453087476294307060342009263e-06 1:3 2:0 3:1 4:1 5:0 6:50 7:0 8:44 9:33 10:0 #
-4.4183179631214439343008144878144e-06 1:22 2:0 3:0 4:2 5:0 6:371 7:0 8:0 9:51 10:0 #
-2.9455453087476294307060342009263e-06 1:4 2:0 3:5 4:2 5:1 6:31 7:0 8:189 9:31 10:20 #
-2.6509907778728666146903728689788e-06 1:1 2:0 3:1 4:2 5:0 6:2 7:0 8:138 9:52 10:0 #
-3.0437301523725503693779213115755e-06 1:1 2:1 3:5 4:5 5:0 6:0 7:0 8:87 9:208 10:0 #
-3.8292089013719183022694918239193e-06 1:0 2:0 3:0 4:2 5:0 6:0 7:0 8:0 9:778 10:0 #
3.9077567762718802947888296905887e-05 1:20 2:1 3:3 4:18 5:1 6:247 7:4 8:165 9:467 10:9 #
-2.8473604651227084920341470902772e-06 1:1 2:0 3:5 4:6 5:0 6:0 7:0 8:80 9:130 10:0 #
1.0211223736991801338798782627926e-05 1:21 2:1 3:1 4:9 5:1 6:539 7:1 8:177 9:531 10:44 #
-3.8292089013719183022694918239193e-06 1:6 2:0 3:2 4:3 5:0 6:109 7:0 8:170 9:404 10:0 #
-4.3201331194965229956289273771652e-06 1:4 2:0 3:0 4:0 5:0 6:420 7:0 8:0 9:0 10:0 #
-3.0437301523725503693779213115755e-06 1:9 2:0 3:0 4:1 5:0 6:50 7:0 8:0 9:4 10:0 #
-2.6509907778728666146903728689788e-06 1:1 2:2 3:2 4:2 5:0 6:2 7:19 8:23 9:55 10:0 #
-4.6146876503712858116445887091128e-06 1:13 2:2 3:0 4:1 5:0 6:461 7:351 8:0 9:110 10:0 #
-5.694720930245416137035346926254e-06 1:3 2:0 3:36 4:48 5:0 6:30 7:0 8:3001 9:4576 10:0 #
-3.3382846832473131853935826435231e-06 1:2 2:0 3:1 4:4 5:0 6:55 7:0 8:0 9:126 10:0 #
3.9077567762718802947888296905887e-05 1:8 2:0 3:2 4:14 5:0 6:79 7:0 8:8 9:663 10:0 #
3.9077567762718802947888296905887e-05 1:0 2:0 3:0 4:0 5:0 6:0 7:0 8:0 9:0 10:0 #
-3.5346543704971550627373568648215e-06 1:4 2:0 3:13 4:8 5:1 6:27 7:0 8:105 9:356 10:0 #
-2.6509907778728666146903728689788e-06 1:6 2:0 3:0 4:1 5:0 6:0 7:0 8:0 9:13 10:0 #
-5.5965360866204951983634598156048e-06 1:24 2:1 3:14 4:17 5:2 6:686 7:38 8:1680 9:1519 10:80 #
-3.7310240577469969400811310861199e-06 1:4 2:1 3:0 4:4 5:1 6:119 7:7 8:0 9:128 10:6 #
-3.4364695268722341240654697541723e-06 1:4 2:0 3:2 4:7 5:0 6:18 7:0 8:88 9:251 10:0 #
-3.5346543704971550627373568648215e-06 1:1 2:0 3:2 4:7 5:0 6:94 7:0 8:9 9:161 10:0 #
-3.1419149959974713080498084222247e-06 1:2 2:2 3:1 4:4 5:1 6:24 7:5 8:18 9:123 10:3 #
-3.5346543704971550627373568648215e-06 1:3 2:0 3:0 4:1 5:0 6:145 7:0 8:0 9:32 10:0 #
-2.6509907778728666146903728689788e-06 1:1 2:0 3:1 4:1 5:0 6:6 7:0 8:2 9:10 10:0 #
-3.1419149959974713080498084222247e-06 1:9 2:0 3:1 4:1 5:0 6:53 7:0 8:107 9:58 10:0 #
-2.6509907778728666146903728689788e-06 1:0 2:0 3:0 4:0 5:0 6:0 7:0 8:0 9:0 10:0 #
-3.1419149959974713080498084222247e-06 1:3 2:1 3:0 4:0 5:0 6:86 7:17 8:0 9:0 10:0 #
-3.0437301523725503693779213115755e-06 1:5 2:0 3:1 4:1 5:0 6:70 7:0 8:45 9:1 10:0 #
-3.8292089013719183022694918239193e-06 1:7 2:1 3:1 4:0 5:0 6:204 7:1 8:100 9:0 10:0 #
-4.0255785886217601796132660452177e-06 1:4 2:0 3:1 4:1 5:0 6:20 7:0 8:33 9:951 10:0 #
-6.0874603047450998917228953688507e-06 1:9 2:13 3:1 4:1 5:2 6:1963 7:1694 8:12 9:11 10:118 #
-3.4364695268722341240654697541723e-06 1:6 2:0 3:0 4:1 5:0 6:108 7:0 8:0 9:9 10:0 #
-3.9273937449968392409413789345685e-06 1:29 2:0 3:1 4:0 5:1 6:230 7:0 8:25 9:0 10:11 #
-3.5346543704971550627373568648215e-06 1:2 2:0 3:0 4:2 5:0 6:91 7:0 8:0 9:102 10:0 #
-4.0255785886217601796132660452177e-06 1:10 2:0 3:1 4:0 5:0 6:340 7:0 8:17 9:0 10:0 #
1.6757428777935956532019190490246e-15 1:59 2:14 3:84 4:104 5:11 6:7909 7:594 8:13287 9:23259 10:4034 #
-2.749175621497787553362259979628e-06 1:3 2:0 3:1 4:0 5:0 6:36 7:0 8:17 9:0 10:0 #
-6.4801996792447836464104438114475e-06 1:1 2:3 3:21 4:38 5:3 6:0 7:22 8:2892 9:7294 10:325 #
-2.6509907778728666146903728689788e-06 1:0 2:1 3:0 4:0 5:0 6:0 7:3 8:0 9:0 10:0 #
2.4448026062605460265999765545608e-05 1:18 2:10 3:4 4:13 5:1 6:264 7:780 8:120 9:633 10:9 #
-3.0437301523725503693779213115755e-06 1:4 2:0 3:1 4:1 5:0 6:33 7:0 8:3 9:87 10:0 #
-2.6509907778728666146903728689788e-06 1:0 2:0 3:0 4:2 5:0 6:0 7:0 8:0 9:51 10:0 #
-2.6509907786604310727838432898418e-06 1:1 2:0 3:0 4:1 5:0 6:0 7:0 8:0 9:3 10:0 #
-4.0255785886217601796132660452177e-06 1:9 2:0 3:0 4:1 5:0 6:343 7:0 8:0 9:7 10:0 #
-3.5346543704971550627373568648215e-06 1:17 2:0 3:1 4:0 5:0 6:127 7:0 8:14 9:0 10:0 #
